digraph Tree {
node [shape=box, style="filled, rounded", color="black", fontname="helvetica"] ;
edge [fontname="helvetica"] ;
0 [label="X <= -0.094\nsquared_error = 1422.643\nsamples = 100\nvalue = -4.335", fillcolor="#f1bc96"] ;
1 [label="X <= -0.96\nsquared_error = 588.541\nsamples = 51\nvalue = -33.729", fillcolor="#f8deca"] ;
0 -> 1 [labeldistance=2.5, labelangle=45, headlabel="True"] ;
2 [label="squared_error = 298.449\nsamples = 17\nvalue = -63.398", fillcolor="#ffffff"] ;
1 -> 2 ;
3 [label="squared_error = 73.398\nsamples = 34\nvalue = -18.895", fillcolor="#f5cdb0"] ;
1 -> 3 ;
4 [label="X <= 0.693\nsquared_error = 455.453\nsamples = 49\nvalue = 26.26", fillcolor="#ea9a60"] ;
0 -> 4 [labeldistance=2.5, labelangle=-45, headlabel="False"] ;
5 [label="squared_error = 62.403\nsamples = 29\nvalue = 10.974", fillcolor="#eeab7b"] ;
4 -> 5 ;
6 [label="squared_error = 195.281\nsamples = 20\nvalue = 48.425", fillcolor="#e58139"] ;
4 -> 6 ;
}